    0.108824220617331546E+01   -0.163655367400073359E+00    0.708896268621212400E+01    0.138266254321770372E+02   -0.120308964648629740E+04
    0.108897566144713021E+01    0.837525439410801376E+00   -0.140807566737868983E+01    0.137314521934453566E+02   -0.120250334602447492E+04
    0.109269345649723348E+01    0.303125938089927089E+02   -0.350283198690766184E-01    0.138739537068477325E+02   -0.120131852172207755E+04
    0.109884974168978200E+01    0.236079369059205888E+02   -0.500951723274791760E-01    0.150696771055365009E+02   -0.120129164992518781E+04
    0.109159332934222220E+01   -0.727581573797033698E-01    0.159641926050024345E+02    0.140024710290269958E+02   -0.120128472060853983E+04
    0.109308520622177952E+01   -0.172506498055685853E+00    0.746800721728711281E+01    0.128968041434509288E+02   -0.120031328395406968E+04
    0.109565887810055451E+01    0.257531812690038997E+02   -0.517188763298035425E-01    0.121346023206537019E+02   -0.120013516276080213E+04
    0.109239062279685140E+01   -0.694316994764232476E-01    0.174790562396515838E+02    0.135971680484930069E+02   -0.120009291315367022E+04
    0.109895527635315093E+01   -0.365851276110428003E+00    0.338817106844116545E+01    0.146011567628168404E+02   -0.120003399998806231E+04
    0.109917438721817384E+01    0.268581325157128781E+02   -0.460971305829005473E-01    0.146013274301207634E+02   -0.119979376652708493E+04
    0.109261599120258013E+01    0.139371788814578963E+02   -0.818785069925276332E-01    0.119713723764964879E+02   -0.119978623048108216E+04
    0.109298823204416595E+01   -0.162918988208075710E+00    0.664910653741017477E+01    0.124338842893093027E+02   -0.119971926998406548E+04
    0.109874810490591646E+01   -0.830538805405005576E-01    0.141854146626226552E+02    0.147677828093641175E+02   -0.119965502291053394E+04
    0.109609368878325730E+01    0.411593021106290813E+00   -0.269218948929143531E+01    0.142687097241428305E+02   -0.119940072764126762E+04
    0.109346181465048953E+01    0.285736497394479940E+02   -0.400274691963531382E-01    0.119437752266090342E+02   -0.119938294915690767E+04
    0.109865004487027118E+01   -0.383085944311025273E+00    0.277730469170541827E+01    0.143408617925968542E+02   -0.119936379769149289E+04
    0.109347089356199012E+01    0.478150735405583838E+00   -0.257421108126975762E+01    0.119170199733642264E+02   -0.119932580292654984E+04
    0.109762972299556605E+01    0.163322861207417773E+02   -0.780066641814487483E-01    0.139407427086547067E+02   -0.119908622078000576E+04
    0.109666007731530746E+01    0.468921936003785120E+02   -0.283294956212234439E-01    0.121433900439329729E+02   -0.119904954109449250E+04
    0.109517622925623459E+01    0.860811563430185167E+00   -0.135312081787782823E+01    0.140484315922672707E+02   -0.119886676614626595E+04
    0.109408752602282844E+01    0.344429328496376641E+00   -0.325840928929391760E+01    0.121375031580464725E+02   -0.119874585360128935E+04
    0.109683757555404449E+01   -0.223341264759580049E+00    0.492444586361381731E+01    0.141676327912360236E+02   -0.119874111959460606E+04
    0.109464286329545635E+01    0.768124750041009996E+00   -0.139817877994765816E+01    0.132574094855526088E+02   -0.119874055414707232E+04
    0.109555262736976333E+01    0.440466694417157854E+02   -0.241189782781381368E-01    0.129885841545948733E+02   -0.119867254346000982E+04
    0.109580625649095698E+01   -0.714581770974946906E-01    0.164448314109490461E+02    0.117334397487192099E+02   -0.119864451766499997E+04
    0.109656114589038145E+01    0.152527620287158960E+02   -0.775546465569370014E-01    0.141947140189802958E+02   -0.119860717939722940E+04
    0.109247023503719154E+01    0.419524195903659525E+00   -0.268586729987361661E+01    0.130952662344778226E+02   -0.119846751928507479E+04
    0.109751611299361151E+01    0.386964240180906138E+00   -0.296332056794681531E+01    0.143430527591571604E+02   -0.119838508087722948E+04
    0.109324974404873720E+01    0.420209551341693270E+02   -0.294855782815650613E-01    0.127619616968344101E+02   -0.119827074338652915E+04
    0.109852185742893393E+01   -0.335562270212061975E+00    0.355787033196548919E+01    0.144092608257910992E+02   -0.119824075540577633E+04
    0.109987080248482005E+01    0.648113279341049342E+00   -0.181440841165397782E+01    0.146440969109834320E+02   -0.119815765044272075E+04
    0.109593085070053675E+01    0.247634377519152906E+02   -0.468749044115961411E-01    0.118706681999334585E+02   -0.119803588663211553E+04
    0.109447800603741419E+01   -0.124792899862906204E+00    0.882694073659317624E+01    0.127256380629247889E+02   -0.119786847810008840E+04
    0.109757134064822237E+01   -0.183722866913155869E+00    0.680357342850622437E+01    0.138574135363376030E+02   -0.119784168829347163E+04
    0.109870663834281279E+01    0.386785651775127874E+02   -0.321375338661926691E-01    0.115559592095565158E+02   -0.119783240071506998E+04
    0.109912186387405941E+01    0.474982825021569184E+02   -0.221472389000911818E-01    0.135943082745560258E+02   -0.119783059480235715E+04
    0.109325976836356054E+01   -0.114938888195726285E+00    0.996467870857313187E+01    0.125232879882776622E+02   -0.119782493457728879E+04
    0.109940803012844923E+01    0.615864604177979835E+00   -0.219482922376323142E+01    0.121057046901412129E+02   -0.119778536074177032E+04
    0.109825854368863141E+01    0.310761846212963420E+02   -0.412044052118840654E-01    0.117105969485273764E+02   -0.119775391774512059E+04
    0.109490907930155279E+01   -0.815522929666698815E-01    0.155518732253119794E+02    0.127264629124954691E+02   -0.119774654501053055E+04
    0.109693285838659182E+01   -0.167242460263330450E+00    0.784949452852471019E+01    0.123992040851258150E+02   -0.119772606244102667E+04
    0.109728431294469142E+01   -0.696856987162419728E-01    0.153393393510675828E+02    0.133736599342006635E+02   -0.119768132122698171E+04
    0.109862683735193656E+01   -0.298187484359488941E+00    0.399274521756060174E+01    0.143154088887573288E+02   -0.119767267845429592E+04
    0.109838060672272086E+01    0.235979729254036492E+02   -0.455936055085190972E-01    0.123549217323614062E+02   -0.119765889692790711E+04
    0.109888178056522090E+01    0.370933904521068669E+00   -0.328772670681105472E+01    0.142234919492252576E+02   -0.119755306588758572E+04
    0.109504359109387917E+01    0.164944849136889715E+02   -0.672769820088552351E-01    0.125524086632125869E+02   -0.119753058870790892E+04
    0.109618439808522217E+01   -0.179883891399859053E+00    0.674005572478429471E+01    0.137101647596191238E+02   -0.119743044466541141E+04
    0.109986538206299889E+01   -0.139405267763944352E+00    0.975931310554523890E+01    0.126868688469057886E+02   -0.119741250857693581E+04
    0.109803375535437886E+01    0.368621989875137714E+02   -0.357997727793062381E-01    0.121749903715100132E+02   -0.119739142042918456E+04
    0.109454484809959185E+01   -0.116471030450767898E+00    0.977116613580632887E+01    0.133331223123158082E+02   -0.119732677338939970E+04
    0.109390697092111933E+01    0.424124813256673505E+00   -0.274153586296574270E+01    0.124737199060301158E+02   -0.119730718496898498E+04
    0.109816480093741164E+01    0.152127609379939202E+02   -0.710163942362225242E-01    0.124441390867388471E+02   -0.119730249076089717E+04
    0.109426796068598509E+01    0.338386506773396434E+00   -0.339119192764084776E+01    0.132209754570831723E+02   -0.119723712862915681E+04
    0.109456498971456240E+01   -0.858451166035427704E-01    0.135050518620233753E+02    0.123188942715204224E+02   -0.119723321352655921E+04
    0.109721020550192749E+01   -0.187115949072637733E+00    0.594715376223168590E+01    0.138361467691162865E+02   -0.119720825487416118E+04
    0.109431986186699826E+01    0.258475967505322082E+02   -0.460754345233853613E-01    0.132075317385505180E+02   -0.119718999798488721E+04
    0.109466341292464087E+01    0.766560327972596767E+00   -0.147473350863664532E+01    0.130555505185075447E+02   -0.119703192395124142E+04
    0.109583389310696622E+01    0.364585828463988548E+02   -0.312169356763201122E-01    0.135867183995702412E+02   -0.119701946039785958E+04
    0.109426566464959629E+01    0.347046404925516860E+00   -0.329656607345589858E+01    0.129083705185085673E+02   -0.119701098080220027E+04
    0.109526873737954356E+01    0.423117898784262536E+00   -0.273408945102236389E+01    0.122599516029038398E+02   -0.119699231050241679E+04
    0.109937103272788628E+01    0.512736901960325397E+00   -0.250333620094385623E+01    0.117110892451130670E+02   -0.119699008512512182E+04
    0.109902026882839987E+01   -0.779302000316262067E-01    0.136380135123021375E+02    0.132082570793480372E+02   -0.119698203929216015E+04
    0.109474947199234318E+01   -0.162428764396314484E+00    0.757009501924983574E+01    0.127180747087636608E+02   -0.119688459211495069E+04
    0.109950825676480912E+01    0.442233156550448143E+02   -0.242164692001543003E-01    0.136594928285117234E+02   -0.119685752372109869E+04
    0.109509171339283706E+01    0.781620374357223646E+00   -0.158676481288385895E+01    0.127404810750131414E+02   -0.119683882246234475E+04
    0.109782214424826430E+01    0.700338325582259280E+00   -0.155228079176103240E+01    0.134854844241915188E+02   -0.119682982371118464E+04
    0.109463349581424030E+01    0.459210164127359377E+00   -0.259624741848204632E+01    0.124188347122866709E+02   -0.119681912277541437E+04
    0.109669588103479798E+01    0.438656933880016808E+00   -0.250252440152227162E+01    0.132382393902596469E+02   -0.119679164524455791E+04
    0.109762348671401710E+01    0.443129309620132972E+02   -0.292834144689999576E-01    0.122634024102084798E+02   -0.119673287284580488E+04
    0.109704484061814478E+01   -0.131987808989578070E+00    0.948784601317379739E+01    0.134052777954077040E+02   -0.119670995821345832E+04
    0.109561236023942765E+01    0.377258321904686333E+00   -0.330800087248234975E+01    0.128737791632136087E+02   -0.119669597743120516E+04
    0.109473125475325683E+01    0.534426480448257912E+00   -0.222340866059883746E+01    0.124558613173710402E+02   -0.119669420225273029E+04
    0.109651562930992053E+01    0.377950004777943604E+00   -0.304463445792005105E+01    0.121606099357590800E+02   -0.119667293606328985E+04
    0.109680502707924266E+01    0.176717967293061236E+02   -0.628887157093638294E-01    0.134777885782396840E+02   -0.119666739007885894E+04
    0.109651410880782829E+01    0.752323972842734001E+00   -0.161598015505694281E+01    0.135366754753399405E+02   -0.119666372922540995E+04
    0.109656029859215898E+01    0.182471535489819026E+02   -0.669287115110357433E-01    0.135005528043084855E+02   -0.119662229073698245E+04
    0.109528093754393741E+01    0.744147747224358724E+00   -0.162098067732990803E+01    0.131904933018689903E+02   -0.119661352802056831E+04
    0.109456444383710116E+01    0.223761601041597906E+02   -0.524138279202768231E-01    0.128206251242870941E+02   -0.119658744739511440E+04
    0.109571521897796242E+01   -0.172504590051248741E+00    0.655960431447527270E+01    0.125534529011820535E+02   -0.119658228791978399E+04
    0.109637757923849710E+01    0.894666475329212396E+00   -0.127023252174842316E+01    0.135330995265104939E+02   -0.119656743023617219E+04
    0.109995678368466332E+01    0.435115379457636564E+00   -0.288945596389116144E+01    0.139746060771460563E+02   -0.119654310696755692E+04
    0.109805566086257866E+01   -0.145301304302456025E+00    0.747254673570403760E+01    0.127705309689649855E+02   -0.119654151339470673E+04
    0.109730987621512210E+01    0.739555599715454370E+00   -0.169196254778926969E+01    0.134222778692671199E+02   -0.119651027905526303E+04
    0.109909462381725276E+01   -0.176035542112850329E+00    0.609050582737979695E+01    0.129718033712501999E+02   -0.119649819038003739E+04
    0.109770697802603445E+01    0.400733629978625601E+02   -0.317591204594895871E-01    0.132938660503275496E+02   -0.119648915778426795E+04
    0.109949670976593339E+01   -0.710015225296132257E-01    0.150433070077638220E+02    0.130250358908609769E+02   -0.119648264300078654E+04
    0.109949670976593339E+01   -0.710015225296132257E-01    0.150433070077638220E+02    0.130250358908609769E+02   -0.119648264300078654E+04
    0.109695651284489903E+01    0.322442164488266236E+00   -0.386978495363091346E+01    0.120886062415608126E+02   -0.119644727287851742E+04
    0.109922539972803279E+01    0.184786504168113233E+02   -0.609054083864908335E-01    0.120205397630760853E+02   -0.119644271578978851E+04
    0.109912500650368350E+01    0.281982726620540518E+02   -0.470214249254494732E-01    0.123232108392657853E+02   -0.119643979150869905E+04
    0.109777142073416956E+01   -0.600082465943785337E-01    0.181534086136814352E+02    0.129121946477813214E+02   -0.119643632345574815E+04
    0.109709963792529264E+01    0.574367214626044564E+00   -0.205073764414920579E+01    0.120238467249276546E+02   -0.119642747986157201E+04
    0.109709843835954013E+01    0.326549598944663018E+02   -0.366538420866735493E-01    0.136900901837015248E+02   -0.119642684007094931E+04
    0.109709843835954013E+01    0.326549598944663018E+02   -0.366538420866735493E-01    0.136900901837015248E+02   -0.119642684007094931E+04
    0.109708283233887460E+01    0.444417141610607302E+00   -0.286749800078697969E+01    0.122827523103989513E+02   -0.119642485157096644E+04
    0.109951254353658556E+01   -0.322069238570576566E+00    0.412806526023475229E+01    0.122427767202284361E+02   -0.119637897086765952E+04
    0.109951254353658556E+01   -0.322069238570576566E+00    0.412806526023475229E+01    0.122427767202284361E+02   -0.119637897086765952E+04
    0.109894154455376847E+01    0.428282797416454031E+00   -0.251526763718621460E+01    0.132336036706856497E+02   -0.119636625449989515E+04
    0.109514933358194133E+01   -0.910170159418361990E-01    0.126896438964389020E+02    0.129818107817752768E+02   -0.119636212419542244E+04
    0.109517376360945495E+01   -0.120147442826442408E+00    0.983763275830886919E+01    0.124940490561347204E+02   -0.119635677191224158E+04
    0.109691113235378523E+01   -0.254389417886700997E+00    0.440092103826744463E+01    0.134393637203482221E+02   -0.119634860541439707E+04
    0.109497786737884417E+01   -0.889520467132305370E-01    0.132596691684016825E+02    0.126420015862867352E+02   -0.119634442099281614E+04
    0.109497786737884417E+01   -0.889520467132305370E-01    0.132596691684016825E+02    0.126420015862867352E+02   -0.119634442099281614E+04
    0.109495323162760472E+01   -0.876736013745906817E-01    0.133696938525489095E+02    0.127824335298611320E+02   -0.119633101659401927E+04
    0.109760313627207573E+01    0.277567073085931568E+02   -0.424428612410405748E-01    0.138120838554732739E+02   -0.119631747567148113E+04
    0.109760313627207573E+01    0.277567073085931568E+02   -0.424428612410405748E-01    0.138120838554732739E+02   -0.119631747567148113E+04
    0.109913275797504206E+01   -0.107732707079018830E+00    0.100524551805058504E+02    0.126408502552427215E+02   -0.119631183572936675E+04
    0.109638064460917262E+01   -0.984214933875007247E-01    0.114614470739749166E+02    0.125423696573347687E+02   -0.119630640829120944E+04
    0.109842455829001384E+01    0.367214772972489527E+02   -0.295629412228590738E-01    0.128360400439679267E+02   -0.119630481569225481E+04
    0.109793996050350073E+01    0.758394086483782814E+00   -0.153558523092113397E+01    0.119820559590807214E+02   -0.119630184584157428E+04
    0.109655265079159570E+01    0.195313974921125038E+02   -0.643130675518852613E-01    0.123486158391076035E+02   -0.119628403147735708E+04
    0.109550993400632946E+01   -0.889941826063065378E-01    0.128766889484331557E+02    0.130517301789466664E+02   -0.119627513235057700E+04
    0.109550993400632946E+01   -0.889941826063065378E-01    0.128766889484331557E+02    0.130517301789466664E+02   -0.119627513235057700E+04
    0.109735435589327901E+01   -0.888947478101345112E-01    0.124141984411092317E+02    0.127250676057033179E+02   -0.119626543388384266E+04
    0.109748800582679440E+01   -0.127217934023668100E+00    0.969572884413971892E+01    0.135392283283343637E+02   -0.119626113036570769E+04
    0.109876769191199286E+01    0.374415771784620901E+02   -0.320037584709371714E-01    0.139837296028533444E+02   -0.119623998518750318E+04
    0.109620714657685547E+01    0.839685147195870840E+00   -0.137081103125725434E+01    0.123927693471005398E+02   -0.119620234582387911E+04
    0.109741268329866570E+01   -0.997718508073441868E-01    0.116810076280769479E+02    0.137346663234280708E+02   -0.119619074112442468E+04
    0.109954538642621680E+01   -0.759002554784915517E-01    0.164589862095413544E+02    0.117372710213248226E+02   -0.119618217436459167E+04
    0.109879036148403375E+01   -0.886990964436931151E-01    0.129500520534764725E+02    0.139916280957079486E+02   -0.119616109749871521E+04
    0.109589445985723022E+01    0.439046239694638629E+02   -0.258807407440020398E-01    0.128131670894956056E+02   -0.119614416721844145E+04
    0.109823593276836040E+01    0.342968393501962510E+00   -0.379762862754110442E+01    0.127224140087890429E+02   -0.119613304951066584E+04
    0.109719108443703406E+01    0.693024778095694849E+00   -0.173384572154129213E+01    0.120484327020701372E+02   -0.119611742767460942E+04
    0.109874844408766670E+01    0.341531700085628387E+00   -0.348284905748503260E+01    0.118512382666771856E+02   -0.119610787564933435E+04
    0.109874844408766670E+01    0.341531700085628387E+00   -0.348284905748503260E+01    0.118512382666771856E+02   -0.119610787564933435E+04
    0.109721381198004320E+01    0.386885878949551731E+00   -0.290970260399770586E+01    0.134775540407817314E+02   -0.119610741186499581E+04
    0.109576757035504602E+01   -0.268145374799356517E+00    0.442868656241654080E+01    0.131865219175208424E+02   -0.119609046507700691E+04
    0.109928094228934103E+01   -0.289623963283188957E+00    0.375626102195501232E+01    0.126206924309410162E+02   -0.119605258717479728E+04
    0.109928094228934103E+01   -0.289623963283188957E+00    0.375626102195501232E+01    0.126206924309410162E+02   -0.119605258717479728E+04
    0.109564277248194952E+01    0.262519038951051513E+02   -0.448933749222710787E-01    0.125048056888489505E+02   -0.119604971100949001E+04
    0.109910840591318504E+01    0.344848103377610293E+00   -0.314166740823484147E+01    0.132552540829401657E+02   -0.119603531640160782E+04
    0.109907533310907723E+01    0.188652036284066540E+02   -0.641497050006467617E-01    0.139500004950890748E+02   -0.119603202786824750E+04
    0.109971158693357696E+01   -0.204220381507346005E+00    0.639802789340167521E+01    0.132867045988877575E+02   -0.119602998772085925E+04
    0.109741058975608441E+01   -0.744329460316661695E-01    0.171805373103852546E+02    0.125256054452211458E+02   -0.119599990372633670E+04
    0.109801808993933880E+01    0.406001693532665797E+00   -0.318290736693248322E+01    0.127852158134839158E+02   -0.119598139452915643E+04
    0.109801808993933880E+01    0.406001693532665797E+00   -0.318290736693248322E+01    0.127852158134839158E+02   -0.119598139452915643E+04
    0.109947863075483010E+01    0.231339585954062663E+02   -0.535024046494969596E-01    0.117725198538104632E+02   -0.119594587285641046E+04
    0.109916621707457152E+01   -0.182179003778378146E+00    0.630712641344978309E+01    0.140014471934745508E+02   -0.119594072558897210E+04
    0.109702940176880159E+01    0.592426686377033995E+00   -0.210382667102801868E+01    0.131509904105718274E+02   -0.119592867422111567E+04
    0.109845994784239531E+01    0.315668857751212215E+02   -0.349158155750846078E-01    0.134523729132368519E+02   -0.119592716831525308E+04
    0.109779146305113606E+01   -0.259706885971754176E+00    0.424659447788673283E+01    0.129697431357207726E+02   -0.119591697844444275E+04
    0.109577458739143174E+01   -0.180258459682681504E+00    0.654741872639148070E+01    0.130743805071195531E+02   -0.119591491278264130E+04
    0.109879158901737095E+01   -0.263835336638856610E+00    0.484181821498128784E+01    0.133615129314723458E+02   -0.119591050755903711E+04
    0.109879158901737095E+01   -0.263835336638856610E+00    0.484181821498128784E+01    0.133615129314723458E+02   -0.119591050755903711E+04
    0.109850855045113760E+01   -0.789206546139782361E-01    0.142845872798293350E+02    0.137546028230342632E+02   -0.119590570606921983E+04
    0.109943267614694973E+01   -0.917891207197980563E-01    0.128966461203896756E+02    0.118304860603903546E+02   -0.119588277367213414E+04
    0.109744436752180330E+01   -0.101480746905217245E+00    0.111343374206804633E+02    0.134709438616217660E+02   -0.119587461341410631E+04
    0.109952945013278747E+01    0.211476993284938040E+02   -0.607938825827298857E-01    0.134495407957907318E+02   -0.119584346323288673E+04
    0.109881212720055865E+01    0.439355656475114671E+02   -0.297681465129748801E-01    0.126932116937465107E+02   -0.119582582084955925E+04
    0.109750955445539167E+01    0.402783958564462807E+00   -0.315789813160851551E+01    0.128395211975673398E+02   -0.119578000860869020E+04
    0.109945775097999521E+01    0.352687898921901777E+00   -0.316649903914777830E+01    0.138409770062871225E+02   -0.119577424896772436E+04
    0.109945775097999521E+01    0.352687898921901777E+00   -0.316649903914777830E+01    0.138409770062871225E+02   -0.119577424896772436E+04
    0.109995269314617783E+01   -0.229965861686642015E+00    0.485057949515068110E+01    0.121818379907902941E+02   -0.119577255415402055E+04
    0.109794363583509824E+01   -0.148814269286956069E+00    0.743123520975234975E+01    0.131320320366669137E+02   -0.119577031276311800E+04
    0.109753170379355502E+01   -0.118389409869241291E+00    0.102971099102618879E+02    0.134808139083966623E+02   -0.119576614289884515E+04
    0.109971149677050684E+01    0.336244370215909250E+00   -0.321712979538175148E+01    0.131953201010324044E+02   -0.119576204723942783E+04
    0.109971149677050684E+01    0.336244370215909250E+00   -0.321712979538175148E+01    0.131953201010324044E+02   -0.119576204723942783E+04
    0.109940461126879119E+01    0.393680211299901828E+00   -0.281563840572659441E+01    0.137353786002834433E+02   -0.119575080591325286E+04
    0.109694255914497885E+01   -0.174691644246657063E+00    0.666862951488607436E+01    0.123185869674538733E+02   -0.119572204477882133E+04
    0.109694255914497885E+01   -0.174691644246657063E+00    0.666862951488607436E+01    0.123185869674538733E+02   -0.119572204477882133E+04
    0.109776731796172333E+01   -0.106659184951149122E+00    0.104175342353711997E+02    0.129239870593575041E+02   -0.119567043901394663E+04
    0.109776731796172333E+01   -0.106659184951149122E+00    0.104175342353711997E+02    0.129239870593575041E+02   -0.119567043901394663E+04
    0.109984134350299123E+01    0.616711148832586709E+00   -0.177616830431803585E+01    0.136167213650842740E+02   -0.119565749973956463E+04
    0.109627425205125006E+01    0.676499270885247306E+00   -0.180274403568915176E+01    0.125669851458494257E+02   -0.119565725514848077E+04
    0.109696484704054975E+01    0.577887551130252142E+00   -0.195600224228652486E+01    0.129753611662191570E+02   -0.119562107426022180E+04
    0.109696484704054975E+01    0.577887551130252142E+00   -0.195600224228652486E+01    0.129753611662191570E+02   -0.119562107426022180E+04
    0.109987620458344360E+01   -0.120095169009454494E+00    0.109386861883637874E+02    0.130584183991569436E+02   -0.119560550731593776E+04
    0.109987620458344360E+01   -0.120095169009454494E+00    0.109386861883637874E+02    0.130584183991569436E+02   -0.119560550731593776E+04
    0.109726503191506697E+01   -0.146869864932228644E+00    0.830889976614300885E+01    0.133266154056790427E+02   -0.119559423283858200E+04
    0.109726503191506697E+01   -0.146869864932228644E+00    0.830889976614300885E+01    0.133266154056790427E+02   -0.119559423283858200E+04
    0.109891064485684797E+01   -0.252783715107706364E+00    0.515557345399805911E+01    0.127397567865552386E+02   -0.119558473792016775E+04
    0.109867896437330792E+01    0.933942880668901410E+00   -0.123875889482699142E+01    0.138068428222486368E+02   -0.119557810785412948E+04
    0.109693612271825880E+01    0.269830248936446147E+02   -0.427982917935487706E-01    0.133074602284984866E+02   -0.119556719519714966E+04
    0.109693612271825880E+01    0.269830248936446147E+02   -0.427982917935487706E-01    0.133074602284984866E+02   -0.119556719519714966E+04
    0.109863198495198167E+01    0.796946960148876116E+00   -0.149803979491639305E+01    0.137808002153787008E+02   -0.119555591375203130E+04
    0.109723375643875132E+01    0.725045958471930874E+00   -0.159279417209902929E+01    0.123849649443772218E+02   -0.119554864456294422E+04
    0.109994154107852316E+01    0.408319598950472873E+00   -0.267900114804244627E+01    0.135520138688057923E+02   -0.119554083144594574E+04
    0.109877565437364000E+01    0.852910537848885042E+00   -0.129893747206050314E+01    0.134257336099809148E+02   -0.119553708389014514E+04
    0.109877565437364000E+01    0.852910537848885042E+00   -0.129893747206050314E+01    0.134257336099809148E+02   -0.119553708389014514E+04
    0.109865868738137107E+01   -0.120398857614006261E+00    0.981927289492587718E+01    0.137999777720978933E+02   -0.119553382068255723E+04
    0.109677179526766766E+01   -0.257735129234861304E+00    0.465233374424609814E+01    0.132395618046407648E+02   -0.119552995301114765E+04
    0.109707528982265590E+01   -0.152763079632049603E+00    0.796994698065200602E+01    0.132470442448926011E+02   -0.119552242543494140E+04
    0.109707528982265590E+01   -0.152763079632049603E+00    0.796994698065200602E+01    0.132470442448926011E+02   -0.119552242543494140E+04
    0.109665216238432839E+01    0.471162713785882481E+00   -0.251936298470813425E+01    0.132015620034359653E+02   -0.119548690675784360E+04
    0.109981195292673717E+01   -0.150651216182916770E+00    0.733039889586362214E+01    0.124371440699198761E+02   -0.119548468963059031E+04
    0.109857668137981701E+01   -0.163150753043984409E+00    0.676596672362946983E+01    0.131244024225712970E+02   -0.119548387837688301E+04
    0.109792812352094038E+01   -0.650004219054425292E-01    0.191605092678862867E+02    0.121648492236025589E+02   -0.119547670380908176E+04
    0.109792812352094038E+01   -0.650004219054425292E-01    0.191605092678862867E+02    0.121648492236025589E+02   -0.119547670380908176E+04
    0.109738630835168971E+01    0.244047044641383941E+02   -0.464569256023086297E-01    0.132281232961644477E+02   -0.119546992886273074E+04
    0.109831894205767688E+01    0.179602586373375672E+02   -0.642358961192694977E-01    0.136673418884020990E+02   -0.119544474241901162E+04
    0.109779615785428630E+01   -0.355467187205929847E+00    0.315175217852425149E+01    0.130809150183289109E+02   -0.119541195852526016E+04
    0.109779615785428630E+01   -0.355467187205929847E+00    0.315175217852425149E+01    0.130809150183289109E+02   -0.119541195852526016E+04
    0.109636647118722230E+01    0.287378490378947191E+02   -0.412110516113699532E-01    0.126590430653795831E+02   -0.119539905551669858E+04
    0.109765052303049915E+01    0.194534290418929814E+02   -0.639822680366526342E-01    0.131475529959972626E+02   -0.119538219275892311E+04
    0.109923120429072907E+01   -0.361671059470522138E+00    0.305980913765973384E+01    0.125889054862570244E+02   -0.119536703475574996E+04
    0.109923120429072907E+01   -0.361671059470522138E+00    0.305980913765973384E+01    0.125889054862570244E+02   -0.119536703475574996E+04
    0.109719298397877374E+01    0.367560537347553336E+02   -0.309052360608914611E-01    0.129103507936505029E+02   -0.119536177759961652E+04
    0.109661555964928947E+01   -0.248544876295468953E+00    0.479879742126820119E+01    0.130637246889106677E+02   -0.119534300300745895E+04
    0.109661555964928947E+01   -0.248544876295468953E+00    0.479879742126820119E+01    0.130637246889106677E+02   -0.119534300300745895E+04
    0.109715627698381546E+01    0.365863107491364730E+02   -0.338741169213605531E-01    0.124822779095498717E+02   -0.119533953989625752E+04
    0.109715627698381546E+01    0.365863107491364730E+02   -0.338741169213605531E-01    0.124822779095498717E+02   -0.119533953989625752E+04
    0.109737711141177918E+01    0.289175372603517147E+02   -0.415126578784903444E-01    0.133478897804991359E+02   -0.119531757393653402E+04
    0.109737711141177918E+01    0.289175372603517147E+02   -0.415126578784903444E-01    0.133478897804991359E+02   -0.119531757393653402E+04
    0.109948511335392851E+01   -0.379705289151672787E+00    0.288782138341819916E+01    0.128475895524275394E+02   -0.119531051784797864E+04
    0.109948511335392851E+01   -0.379705289151672787E+00    0.288782138341819916E+01    0.128475895524275394E+02   -0.119531051784797864E+04
    0.109955349380872480E+01    0.601221387938921659E+00   -0.193287551766874133E+01    0.139123146445159627E+02   -0.119529215271681051E+04
    0.109888113517833652E+01   -0.140216778337347137E+00    0.792456808499253285E+01    0.126579913530838706E+02   -0.119527850165728091E+04
    0.109983008363975854E+01   -0.213899750728535842E+00    0.541457649118631501E+01    0.139567821643631635E+02   -0.119527516434362883E+04
    0.109983008363975854E+01   -0.213899750728535842E+00    0.541457649118631501E+01    0.139567821643631635E+02   -0.119527516434362883E+04
    0.109963277508506652E+01   -0.165003252311484161E+00    0.772413926303281784E+01    0.134139923271228199E+02   -0.119523956806003366E+04
    0.109963277508506652E+01   -0.165003252311484161E+00    0.772413926303281784E+01    0.134139923271228199E+02   -0.119523956806003366E+04
    0.109716628402456973E+01   -0.172627180455726226E+00    0.664856998829225176E+01    0.130809432042875802E+02   -0.119523407999955452E+04
    0.109716628402456973E+01   -0.172627180455726226E+00    0.664856998829225176E+01    0.130809432042875802E+02   -0.119523407999955452E+04
    0.109881204191190052E+01    0.212537981994639367E+02   -0.521084358774102085E-01    0.129163227440013060E+02   -0.119522213832559396E+04
    0.109734989952052486E+01   -0.765306152729294809E-01    0.162303197360820377E+02    0.125212392950635305E+02   -0.119520057069450468E+04
    0.109734989952052486E+01   -0.765306152729294809E-01    0.162303197360820377E+02    0.125212392950635305E+02   -0.119520057069450468E+04
    0.109756462269247002E+01    0.282296548911540484E+02   -0.443746978072487863E-01    0.127839398445371977E+02   -0.119518895852954847E+04
    0.109882801194414337E+01    0.358147880062562152E+00   -0.345656368819591098E+01    0.120391841318929860E+02   -0.119516826299865534E+04
    0.109913788377418520E+01    0.415091864019245804E+00   -0.270854041954319547E+01    0.135692004604865701E+02   -0.119515125184743010E+04
    0.109913788377418520E+01    0.415091864019245804E+00   -0.270854041954319547E+01    0.135692004604865701E+02   -0.119515125184743010E+04
    0.109708064992082877E+01   -0.859453080794461144E-01    0.134356829388976564E+02    0.127847846800779585E+02   -0.119512836545025311E+04
    0.109733115400903092E+01    0.554314625519419124E+00   -0.219904445171644403E+01    0.131139417811257140E+02   -0.119511021644802099E+04
    0.109942928460410050E+01   -0.723727230643032016E-01    0.169458953057005317E+02    0.119387610092818264E+02   -0.119510942848840818E+04
    0.109943282903852158E+01   -0.325560805189161862E+00    0.338819667142993808E+01    0.128379697538974789E+02   -0.119509245449692253E+04
    0.109943282903852158E+01   -0.325560805189161862E+00    0.338819667142993808E+01    0.128379697538974789E+02   -0.119509245449692253E+04
    0.109912015032313914E+01    0.257730244469625447E+02   -0.464237795390705088E-01    0.120087330358000912E+02   -0.119508335339112728E+04
    0.109964818093878525E+01   -0.741447194269015952E-01    0.148500131175437744E+02    0.128130293618974527E+02   -0.119507651226400003E+04
    0.109805660599217325E+01    0.210161867404560248E+02   -0.602004927000328038E-01    0.126127210081025822E+02   -0.119507247279742955E+04
    0.109942862528621332E+01    0.897558455373780539E+00   -0.127030433060358527E+01    0.137251179530409502E+02   -0.119503674504025889E+04
    0.109942862528621332E+01    0.897558455373780539E+00   -0.127030433060358527E+01    0.137251179530409502E+02   -0.119503674504025889E+04
    0.109917784916840811E+01   -0.678229356909261227E-01    0.163303766956396572E+02    0.131074966947757794E+02   -0.119502593228309456E+04
    0.109917784916840811E+01   -0.678229356909261227E-01    0.163303766956396572E+02    0.131074966947757794E+02   -0.119502593228309456E+04
    0.109965880310966480E+01   -0.354008140545177596E+00    0.364089684573885108E+01    0.131497127352994703E+02   -0.119500962768246927E+04
    0.109747824222990786E+01   -0.160120575631238715E+00    0.726388562397272608E+01    0.125317593632366311E+02   -0.119499967358365848E+04
    0.109747824222990786E+01   -0.160120575631238715E+00    0.726388562397272608E+01    0.125317593632366311E+02   -0.119499967358365848E+04
    0.109909579090935572E+01   -0.299090698918367259E+00    0.372707299778275214E+01    0.126946993910434873E+02   -0.119499542587475253E+04
    0.109909579090935572E+01   -0.299090698918367259E+00    0.372707299778275214E+01    0.126946993910434873E+02   -0.119499542587475253E+04
    0.109992140736445343E+01    0.430022551059502405E+02   -0.255138035152615572E-01    0.129900287816583635E+02   -0.119499522194435212E+04
    0.109822598880447431E+01    0.228188977471937378E+02   -0.507805000138894513E-01    0.123435062823039878E+02   -0.119499465760531120E+04
    0.109974940169826740E+01    0.631782077138117515E+00   -0.201366476433891162E+01    0.120355946997661984E+02   -0.119498667342499220E+04
    0.109974940169826740E+01    0.631782077138117515E+00   -0.201366476433891162E+01    0.120355946997661984E+02   -0.119498667342499220E+04
    0.109927553796002542E+01    0.318270516415098044E+02   -0.400315933800667878E-01    0.132071434112461468E+02   -0.119497017940895353E+04
    0.109927553796002542E+01    0.318270516415098044E+02   -0.400315933800667878E-01    0.132071434112461468E+02   -0.119497017940895353E+04
    0.109719676921592613E+01   -0.149057469416357335E+00    0.785678226713468142E+01    0.126551795325465104E+02   -0.119494113284119453E+04
    0.109719676921592613E+01   -0.149057469416357335E+00    0.785678226713468142E+01    0.126551795325465104E+02   -0.119494113284119453E+04
    0.109936885243797966E+01    0.920758614748645066E+00   -0.128409545622229349E+01    0.137686275355542875E+02   -0.119492454887149961E+04
    0.109936885243797966E+01    0.920758614748645066E+00   -0.128409545622229349E+01    0.137686275355542875E+02   -0.119492454887149961E+04
    0.109778040893723716E+01   -0.783449008953631676E-01    0.159248304253601383E+02    0.125922007360521242E+02   -0.119492072598182881E+04
    0.109778040893723716E+01   -0.783449008953631676E-01    0.159248304253601383E+02    0.125922007360521242E+02   -0.119492072598182881E+04
    0.109727739257596379E+01   -0.329488814316015954E+00    0.359869157449822374E+01    0.125406461788009889E+02   -0.119490541195614855E+04
    0.109859291254408120E+01   -0.868110316170245255E-01    0.129909243180688705E+02    0.126690630578653103E+02   -0.119490109532597899E+04
    0.109782617085039336E+01    0.818007503402266245E+00   -0.149691380895246073E+01    0.123472568841941506E+02   -0.119489358751519558E+04
    0.109782617085039336E+01    0.818007503402266245E+00   -0.149691380895246073E+01    0.123472568841941506E+02   -0.119489358751519558E+04
    0.109709493989704843E+01    0.235352736530322879E+02   -0.507778951296131709E-01    0.128669595156359602E+02   -0.119486933871811493E+04
    0.109709493989704843E+01    0.235352736530322879E+02   -0.507778951296131709E-01    0.128669595156359602E+02   -0.119486933871811493E+04
    0.109933729330221075E+01    0.793384033296525182E+00   -0.140079349890436333E+01    0.128068979278874409E+02   -0.119486921482620028E+04
    0.109933729330221075E+01    0.793384033296525182E+00   -0.140079349890436333E+01    0.128068979278874409E+02   -0.119486921482620028E+04
    0.109831697075095436E+01   -0.292469702175946367E+00    0.423171692730712579E+01    0.122607086594368333E+02   -0.119485228978710165E+04
    0.109729365513840915E+01   -0.126345985839869002E+00    0.927156944676365491E+01    0.127121157404486738E+02   -0.119483693295186572E+04
    0.109729365513840915E+01   -0.126345985839869002E+00    0.927156944676365491E+01    0.127121157404486738E+02   -0.119483693295186572E+04
    0.109776887569975234E+01    0.320970815133637473E+02   -0.358049570885290436E-01    0.130628344670611298E+02   -0.119482378780020417E+04
    0.109776887569975234E+01    0.320970815133637473E+02   -0.358049570885290436E-01    0.130628344670611298E+02   -0.119482378780020417E+04
    0.109903400490608250E+01    0.275325698029220121E+02   -0.423450653032420021E-01    0.136446806402508685E+02   -0.119482197347665851E+04
    0.109903400490608250E+01    0.275325698029220121E+02   -0.423450653032420021E-01    0.136446806402508685E+02   -0.119482197347665851E+04
    0.109830791122000448E+01    0.258709875616082137E+02   -0.451261789521844037E-01    0.134395447490779159E+02   -0.119481317310207737E+04
    0.109830791122000448E+01    0.258709875616082137E+02   -0.451261789521844037E-01    0.134395447490779159E+02   -0.119481317310207737E+04
    0.109773548814973099E+01   -0.155794612103687946E+00    0.795997645855038982E+01    0.126261499315222441E+02   -0.119481195499016644E+04
    0.109797796708329765E+01    0.534812552757339965E+00   -0.216560426817202778E+01    0.132737700340094413E+02   -0.119480469927038280E+04
    0.109819598365497506E+01   -0.138118033726170708E+00    0.824080224344269574E+01    0.127281991209191681E+02   -0.119480162861939834E+04
    0.109819598365497506E+01   -0.138118033726170708E+00    0.824080224344269574E+01    0.127281991209191681E+02   -0.119480162861939834E+04
    0.109926637212050382E+01   -0.784069934086257803E-01    0.151534066713023812E+02    0.120797717143400334E+02   -0.119478468104625836E+04
    0.109776624199107786E+01   -0.751495085329061396E-01    0.162653604092218274E+02    0.124276893317957065E+02   -0.119477841475280547E+04
    0.109951684608406941E+01   -0.704041804605450849E-01    0.184054803818651571E+02    0.125456042903171294E+02   -0.119477812845238486E+04
    0.109951684608406941E+01   -0.704041804605450849E-01    0.184054803818651571E+02    0.125456042903171294E+02   -0.119477812845238486E+04
    0.109860855707625116E+01    0.322873568621385303E+02   -0.385470893021198080E-01    0.122464478777751182E+02   -0.119475746381172462E+04
    0.109997490473995918E+01   -0.212501066918106218E+00    0.519026342772673743E+01    0.131088866602966228E+02   -0.119475533898778258E+04
    0.109997490473995918E+01   -0.212501066918106218E+00    0.519026342772673743E+01    0.131088866602966228E+02   -0.119475533898778258E+04
    0.109833210409875770E+01   -0.100845600425924609E+00    0.119584310148470578E+02    0.133803059255198864E+02   -0.119473496440569829E+04
    0.109833210409875770E+01   -0.100845600425924609E+00    0.119584310148470578E+02    0.133803059255198864E+02   -0.119473496440569829E+04
    0.109735450402454648E+01   -0.255548617401131217E+00    0.468417271755543041E+01    0.129479000755755358E+02   -0.119473352271530916E+04
    0.109735450402454648E+01   -0.255548617401131217E+00    0.468417271755543041E+01    0.129479000755755358E+02   -0.119473352271530916E+04
    0.109922938119771563E+01   -0.912400386182161682E-01    0.139449939706305805E+02    0.122656430697016461E+02   -0.119472859771211984E+04
    0.109922938119771563E+01   -0.912400386182161682E-01    0.139449939706305805E+02    0.122656430697016461E+02   -0.119472859771211984E+04
    0.109992019485802217E+01    0.721583924212775507E+00   -0.154130818301114081E+01    0.133971475113425811E+02   -0.119471938952115261E+04
    0.109730009663478878E+01    0.392938770398891180E+02   -0.302442231194204325E-01    0.127895734999996620E+02   -0.119471857310559631E+04
    0.109908464171914177E+01    0.647483563380262694E+00   -0.182003096725914482E+01    0.136290346312707236E+02   -0.119470860556169464E+04
    0.109926053715339478E+01   -0.164522489185435106E+00    0.738421804360747203E+01    0.135941232046396614E+02   -0.119470610524044559E+04
    0.109926053715339478E+01   -0.164522489185435106E+00    0.738421804360747203E+01    0.135941232046396614E+02   -0.119470610524044559E+04
    0.109996956481332919E+01   -0.100846814052728107E+00    0.113418885184596974E+02    0.137473260597992759E+02   -0.119469745694911626E+04
    0.109877913752816703E+01   -0.112036218531221365E+00    0.113536601853803987E+02    0.125550202350954354E+02   -0.119468930330614194E+04
    0.109981058993582170E+01    0.360760907801681796E+00   -0.354651895246514304E+01    0.132080919540190713E+02   -0.119468880441669444E+04
    0.109981058993582170E+01    0.360760907801681796E+00   -0.354651895246514304E+01    0.132080919540190713E+02   -0.119468880441669444E+04
    0.109846086643640595E+01   -0.759681090157675598E-01    0.152342174802518819E+02    0.133874978083742580E+02   -0.119468799308640837E+04
    0.109846086643640595E+01   -0.759681090157675598E-01    0.152342174802518819E+02    0.133874978083742580E+02   -0.119468799308640837E+04
    0.109857909382158603E+01   -0.667138690595283634E-01    0.179193841711943165E+02    0.122207972600474370E+02   -0.119467701932512546E+04
    0.109799243030864635E+01    0.536126733428799795E+00   -0.227478629072783178E+01    0.123858088378265219E+02   -0.119467299832232425E+04
    0.109799243030864635E+01    0.536126733428799795E+00   -0.227478629072783178E+01    0.123858088378265219E+02   -0.119467299832232425E+04
    0.109776732640972186E+01   -0.198944659421652403E+00    0.604537260975242141E+01    0.131397288547468207E+02   -0.119466975295118777E+04
    0.109776732640972186E+01   -0.198944659421652403E+00    0.604537260975242141E+01    0.131397288547468207E+02   -0.119466975295118777E+04
    0.109877189231728667E+01    0.286277472776296520E+02   -0.400295822826164382E-01    0.134086873192519356E+02   -0.119466827156724116E+04
    0.109799423583028499E+01   -0.119953400223498541E+00    0.101325232214118053E+02    0.131659930591187440E+02   -0.119465466949385200E+04
    0.109799423583028499E+01   -0.119953400223498541E+00    0.101325232214118053E+02    0.131659930591187440E+02   -0.119465466949385200E+04
    0.109985241431856418E+01    0.264075030559777240E+02   -0.471357911342504821E-01    0.135511877158331657E+02   -0.119464492484296420E+04
    0.109985241431856418E+01    0.264075030559777240E+02   -0.471357911342504821E-01    0.135511877158331657E+02   -0.119464492484296420E+04
    0.109876889075159401E+01   -0.171052510612585529E+00    0.702543656235801883E+01    0.134867053515224544E+02   -0.119463775585559529E+04
    0.109876889075159401E+01   -0.171052510612585529E+00    0.702543656235801883E+01    0.134867053515224544E+02   -0.119463775585559529E+04
    0.109775148124883160E+01   -0.131579819649229712E+00    0.925935005436767611E+01    0.129843327511802524E+02   -0.119462508185147885E+04
    0.109775148124883160E+01   -0.131579819649229712E+00    0.925935005436767611E+01    0.129843327511802524E+02   -0.119462508185147885E+04
    0.109902563005565290E+01    0.437925212505378525E+00   -0.283635851209567669E+01    0.121783604282372355E+02   -0.119460990748628205E+04
    0.109998220012004855E+01    0.298563581518808192E+02   -0.427878728278594522E-01    0.132569932061864133E+02   -0.119459819441673721E+04
    0.109998220012004855E+01    0.298563581518808192E+02   -0.427878728278594522E-01    0.132569932061864133E+02   -0.119459819441673721E+04
    0.109761933926614375E+01   -0.356756214743409572E+00    0.333617518659541190E+01    0.130212522409322879E+02   -0.119459361912045938E+04
    0.109761933926614375E+01   -0.356756214743409572E+00    0.333617518659541190E+01    0.130212522409322879E+02   -0.119459361912045938E+04
    0.109869524117835415E+01    0.450471521669529196E+00   -0.256083207293103809E+01    0.133854809918645721E+02   -0.119457384320343954E+04
    0.109926516033906907E+01    0.433857291631307618E+02   -0.268052685078616904E-01    0.122606568990193701E+02   -0.119453794199721710E+04
    0.109926516033906907E+01    0.433857291631307618E+02   -0.268052685078616904E-01    0.122606568990193701E+02   -0.119453794199721710E+04
    0.109940910348211895E+01    0.371357448885966761E+02   -0.314614606124274943E-01    0.136353896469876705E+02   -0.119453011253787577E+04
    0.109850213132284624E+01    0.539855970354189196E+00   -0.220614294659162713E+01    0.133738726812010977E+02   -0.119450986227643193E+04
    0.109850213132284624E+01    0.539855970354189196E+00   -0.220614294659162713E+01    0.133738726812010977E+02   -0.119450986227643193E+04
    0.109838594229318542E+01   -0.162524762271762491E+00    0.707171642808210876E+01    0.131344493515361194E+02   -0.119449330319404021E+04
    0.109838594229318542E+01   -0.162524762271762491E+00    0.707171642808210876E+01    0.131344493515361194E+02   -0.119449330319404021E+04
    0.109964659801797371E+01   -0.672621981428545013E-01    0.165887151513092022E+02    0.129968230992447396E+02   -0.119448284967127734E+04
    0.109964659801797371E+01   -0.672621981428545013E-01    0.165887151513092022E+02    0.129968230992447396E+02   -0.119448284967127734E+04
    0.109824156905952819E+01    0.886214448930625842E+00   -0.130940839943283871E+01    0.131754108949689765E+02   -0.119448213957732878E+04
    0.109949468365552283E+01   -0.119822815161583662E+00    0.971007455094158267E+01    0.136273486118684488E+02   -0.119448082806749062E+04
    0.109800232943064646E+01    0.424379160000936118E+00   -0.277053381459821502E+01    0.125655499614370196E+02   -0.119448006878743195E+04
    0.109979304783309151E+01    0.368198676194742376E+02   -0.305676962902632354E-01    0.134244584661679607E+02   -0.119447152773200787E+04
    0.109880796445157758E+01   -0.109111960931086216E+00    0.107877009469968019E+02    0.123040769953859055E+02   -0.119446977913381056E+04
    0.109846652053328375E+01   -0.136539717647041314E+00    0.877516410797653634E+01    0.123221762480883186E+02   -0.119446902108883819E+04
    0.109846652053328375E+01   -0.136539717647041314E+00    0.877516410797653634E+01    0.123221762480883186E+02   -0.119446902108883819E+04
    0.109961612023879551E+01    0.744496676823933612E+00   -0.153896050580633137E+01    0.135707388234050779E+02   -0.119446052939941137E+04
    0.109833422984003737E+01    0.219363321712867929E+02   -0.553763081674309987E-01    0.123714746500266877E+02   -0.119444400058700148E+04
    0.109975574318930835E+01    0.291343152608522615E+00   -0.384304532395340992E+01    0.132622678397608098E+02   -0.119443921915701230E+04
    0.109980388222733128E+01    0.344368918365044365E+02   -0.326906678820586549E-01    0.134066903631932615E+02   -0.119443128638765893E+04
    0.109980388222733128E+01    0.344368918365044365E+02   -0.326906678820586549E-01    0.134066903631932615E+02   -0.119443128638765893E+04
    0.109907995347968579E+01   -0.118360067438415761E+00    0.105641851144957677E+02    0.122738463860070013E+02   -0.119442680675621023E+04
    0.109992912329393322E+01    0.321475394852857477E+00   -0.347506463957333089E+01    0.132732368576986897E+02   -0.119442252578968328E+04
    0.109992912329393322E+01    0.321475394852857477E+00   -0.347506463957333089E+01    0.132732368576986897E+02   -0.119442252578968328E+04
    0.109851517691996303E+01    0.589005216476713223E+00   -0.207053259646868604E+01    0.123329558512663517E+02   -0.119441588708573613E+04
    0.109851517691996303E+01    0.589005216476713223E+00   -0.207053259646868604E+01    0.123329558512663517E+02   -0.119441588708573613E+04
    0.109794780209126808E+01    0.262050608590817760E+02   -0.454220806279170830E-01    0.130534206532123207E+02   -0.119439646277330758E+04
    0.109878582935817493E+01   -0.956669877608247177E-01    0.120557665413745845E+02    0.125212506867319533E+02   -0.119439611068764771E+04
    0.109878582935817493E+01   -0.956669877608247177E-01    0.120557665413745845E+02    0.125212506867319533E+02   -0.119439611068764771E+04
    0.109844510921479488E+01    0.388244418491521870E+02   -0.319237108954197879E-01    0.124771922155795281E+02   -0.119439348017423868E+04
    0.109844510921479488E+01    0.388244418491521870E+02   -0.319237108954197879E-01    0.124771922155795281E+02   -0.119439348017423868E+04
    0.109915292411271781E+01    0.186829463671956688E+02   -0.608577243707877358E-01    0.126348124619569013E+02   -0.119438328033324387E+04
    0.109962197786011640E+01    0.430371313639322892E+02   -0.276117617233744284E-01    0.136425194887598416E+02   -0.119437647736937470E+04
    0.109962197786011640E+01    0.430371313639322892E+02   -0.276117617233744284E-01    0.136425194887598416E+02   -0.119437647736937470E+04
    0.109812612687067901E+01   -0.105463899694843377E+00    0.116360851666067191E+02    0.128859996917891806E+02   -0.119437013416668879E+04
    0.109812612687067901E+01   -0.105463899694843377E+00    0.116360851666067191E+02    0.128859996917891806E+02   -0.119437013416668879E+04
    0.109953180130236206E+01    0.597732186310773628E+00   -0.214512884462735887E+01    0.125282196195536315E+02   -0.119436730393962489E+04
    0.109953180130236206E+01    0.597732186310773628E+00   -0.214512884462735887E+01    0.125282196195536315E+02   -0.119436730393962489E+04
    0.109816809319623188E+01   -0.196851936619972356E+00    0.624345177998696599E+01    0.126006100034204689E+02   -0.119435962925182753E+04
    0.109816809319623188E+01   -0.196851936619972356E+00    0.624345177998696599E+01    0.126006100034204689E+02   -0.119435962925182753E+04
    0.109931458181657526E+01   -0.282810437891797939E+00    0.424910845999982101E+01    0.135292567423456767E+02   -0.119434879819483535E+04
    0.109955473116781910E+01   -0.164461632072393726E+00    0.685330273528963296E+01    0.132524673556392720E+02   -0.119434846024125341E+04
    0.109965899012731838E+01   -0.113210947032727383E+00    0.989408646100652334E+01    0.130377262437560759E+02   -0.119434753213914723E+04
    0.109965899012731838E+01   -0.113210947032727383E+00    0.989408646100652334E+01    0.130377262437560759E+02   -0.119434753213914723E+04
    0.109918797202602847E+01    0.257284377690514177E+02   -0.456313798771557089E-01    0.122801863972117786E+02   -0.119434493714963446E+04
    0.109989007649286319E+01    0.835110924027089752E+00   -0.138098588898856356E+01    0.122749484651083804E+02   -0.119434043077759543E+04
    0.109989007649286319E+01    0.835110924027089752E+00   -0.138098588898856356E+01    0.122749484651083804E+02   -0.119434043077759543E+04
    0.109864707079775625E+01   -0.279603046806228051E+00    0.409226448753001293E+01    0.129794135398744501E+02   -0.119433567610321461E+04
    0.109864707079775625E+01   -0.279603046806228051E+00    0.409226448753001293E+01    0.129794135398744501E+02   -0.119433567610321461E+04
    0.109962103196423833E+01   -0.301970545289556469E+00    0.371631386590737200E+01    0.128661791929035587E+02   -0.119432920157433932E+04
    0.109901779959520240E+01   -0.859867890793211131E-01    0.137318261588741812E+02    0.122924448615886011E+02   -0.119432818564305239E+04
    0.109910061961843786E+01    0.456404925774061887E+00   -0.272271731447200160E+01    0.122718241691059955E+02   -0.119431858375869865E+04
    0.109797716038876914E+01   -0.834710263929698826E-01    0.145400412205712151E+02    0.127567121659764471E+02   -0.119431206337114781E+04
    0.109797716038876914E+01   -0.834710263929698826E-01    0.145400412205712151E+02    0.127567121659764471E+02   -0.119431206337114781E+04
    0.109933576828002466E+01   -0.197906346108684517E+00    0.593477792565086837E+01    0.135352504358591919E+02   -0.119430033707164625E+04
    0.109933576828002466E+01   -0.197906346108684517E+00    0.593477792565086837E+01    0.135352504358591919E+02   -0.119430033707164625E+04
    0.109873038143528468E+01    0.604807162845012236E+00   -0.207039689978578956E+01    0.128272786547286426E+02   -0.119428461193538988E+04
    0.109873038143528468E+01    0.604807162845012236E+00   -0.207039689978578956E+01    0.128272786547286426E+02   -0.119428461193538988E+04
    0.109844172639632376E+01   -0.178039042765736788E+00    0.648272587523947230E+01    0.128525442011417894E+02   -0.119428103397918744E+04
    0.109844172639632376E+01   -0.178039042765736788E+00    0.648272587523947230E+01    0.128525442011417894E+02   -0.119428103397918744E+04
    0.109954206780563912E+01    0.228339976573121000E+02   -0.496281311214064047E-01    0.132996629824018076E+02   -0.119426620005935092E+04
    0.109906259633256975E+01   -0.820974247848944572E-01    0.154019240933694874E+02    0.126090141125944033E+02   -0.119426042118721693E+04
    0.109811077815215463E+01   -0.783589354722389331E-01    0.155303727774503244E+02    0.126820598518186838E+02   -0.119425421211729122E+04
    0.109938303089821288E+01   -0.355443729116482920E+00    0.325432347916289899E+01    0.123889988232326616E+02   -0.119424849045036672E+04
    0.109938303089821288E+01   -0.355443729116482920E+00    0.325432347916289899E+01    0.123889988232326616E+02   -0.119424849045036672E+04
    0.109905476151322024E+01    0.917728308629754075E+00   -0.135722891632793319E+01    0.131269771809493783E+02   -0.119424705474454663E+04
    0.109828983528209223E+01    0.346347167790228561E+00   -0.336014684685916976E+01    0.129391976220315144E+02   -0.119424656654289083E+04
    0.109828983528209223E+01    0.346347167790228561E+00   -0.336014684685916976E+01    0.129391976220315144E+02   -0.119424656654289083E+04
    0.109879545874277351E+01   -0.114773120963234554E+00    0.997527816693835589E+01    0.128266823280110778E+02   -0.119424545204449510E+04
    0.109879545874277351E+01   -0.114773120963234554E+00    0.997527816693835589E+01    0.128266823280110778E+02   -0.119424545204449510E+04
    0.109922395573445408E+01   -0.106979648190420384E+00    0.106748635516944095E+02    0.132628988899555154E+02   -0.119423523690640786E+04
    0.109922395573445408E+01   -0.106979648190420384E+00    0.106748635516944095E+02    0.132628988899555154E+02   -0.119423523690640786E+04
    0.109945252341916255E+01   -0.157704917850496784E+00    0.802251268956818286E+01    0.130373546981483717E+02   -0.119423399007332114E+04
    0.109950555637923086E+01   -0.227033248942801080E+00    0.528450532641382154E+01    0.135432155622272532E+02   -0.119423382828759236E+04
    0.109916650673894845E+01    0.371863587929276918E+02   -0.339862127241561396E-01    0.128612935363546796E+02   -0.119422201502343478E+04
    0.109935227335746366E+01    0.390093246184172848E+00   -0.324143252837286333E+01    0.129738426052438491E+02   -0.119420633567395748E+04
    0.109935227335746366E+01    0.390093246184172848E+00   -0.324143252837286333E+01    0.129738426052438491E+02   -0.119420633567395748E+04
    0.109825707540019546E+01   -0.111760576543885826E+00    0.107412934468525219E+02    0.125486334535075059E+02   -0.119420615228148745E+04
    0.109913903380122702E+01    0.813331938468682125E+00   -0.155006530287067257E+01    0.128966427570503051E+02   -0.119420070262620766E+04
    0.109824566483828856E+01    0.517601347317385496E+00   -0.226163376472874100E+01    0.129072990566991486E+02   -0.119419719450386901E+04
    0.109824566483828856E+01    0.517601347317385496E+00   -0.226163376472874100E+01    0.129072990566991486E+02   -0.119419719450386901E+04
    0.109860690542533579E+01    0.327703562117421257E+02   -0.351964765804044788E-01    0.128474496488255809E+02   -0.119419395915955079E+04
    0.109860690542533579E+01    0.327703562117421257E+02   -0.351964765804044788E-01    0.128474496488255809E+02   -0.119419395915955079E+04
    0.109884892774659138E+01    0.392004986021839308E+00   -0.295045189399546404E+01    0.125935509539832591E+02   -0.119418796373372652E+04
    0.109884892774659138E+01    0.392004986021839308E+00   -0.295045189399546404E+01    0.125935509539832591E+02   -0.119418796373372652E+04
    0.109844004721292166E+01   -0.108607658286490327E+00    0.113563464203688298E+02    0.128185031854830989E+02   -0.119418251316196347E+04
    0.109976616703967034E+01    0.351965233150356269E+02   -0.334391457659233282E-01    0.122091348655671936E+02   -0.119416947058139726E+04
    0.109933239121589676E+01    0.242896288662877105E+02   -0.517561804836201844E-01    0.130600288303802419E+02   -0.119416751199355099E+04
    0.109838611822405574E+01   -0.709217283729888237E-01    0.173403135679527161E+02    0.127335387613814337E+02   -0.119416269370909413E+04
    0.109823270074792245E+01    0.489278134395084940E+00   -0.248819517531549161E+01    0.128182762055251978E+02   -0.119416185214699499E+04
    0.109823270074792245E+01    0.489278134395084940E+00   -0.248819517531549161E+01    0.128182762055251978E+02   -0.119416185214699499E+04
    0.109841426884720383E+01   -0.314071770541796802E+00    0.385857259186912849E+01    0.130430085899470569E+02   -0.119414151746087919E+04
    0.109893368155458382E+01   -0.271614413714923231E+00    0.426059560576749341E+01    0.132274363317264303E+02   -0.119413684840471501E+04
    0.109895123678938145E+01    0.370024293250234670E+00   -0.310018501832840254E+01    0.130704303478985491E+02   -0.119413399213567891E+04
    0.109932178104580647E+01    0.561602352911720004E+00   -0.206188451543258422E+01    0.133930305597017512E+02   -0.119413216035281289E+04
    0.109884024632000044E+01    0.686621882297310471E+00   -0.178368293980719717E+01    0.123750108506301171E+02   -0.119413169373352525E+04
    0.109878534945792694E+01   -0.132192761420894200E+00    0.875981599592768490E+01    0.131394808723515233E+02   -0.119412484271953826E+04
    0.109898361002993306E+01   -0.115632947992059698E+00    0.103084786852084633E+02    0.123464520617549578E+02   -0.119411241360495478E+04
    0.109945576080830687E+01    0.487946548095429478E+00   -0.238382940630739215E+01    0.134500252583912072E+02   -0.119410091029813771E+04
    0.109945576080830687E+01    0.487946548095429478E+00   -0.238382940630739215E+01    0.134500252583912072E+02   -0.119410091029813771E+04
    0.109915728838985682E+01    0.733856896031095829E+00   -0.158660368376227190E+01    0.133453474998392334E+02   -0.119409091739813925E+04
    0.109915728838985682E+01    0.733856896031095829E+00   -0.158660368376227190E+01    0.133453474998392334E+02   -0.119409091739813925E+04
    0.109907295884404754E+01    0.396807778949003875E+00   -0.310905623564701727E+01    0.131632355701787418E+02   -0.119408075321342562E+04
    0.109919212218138451E+01   -0.905635738350980546E-01    0.134575221399859224E+02    0.133143833872527111E+02   -0.119407918058306541E+04
    0.109919212218138451E+01   -0.905635738350980546E-01    0.134575221399859224E+02    0.133143833872527111E+02   -0.119407918058306541E+04
    0.109848813300470183E+01    0.382450966515390789E+00   -0.305177181432085209E+01    0.128388576949846751E+02   -0.119407565735742696E+04
    0.109848813300470183E+01    0.382450966515390789E+00   -0.305177181432085209E+01    0.128388576949846751E+02   -0.119407565735742696E+04
    0.109970817841659385E+01   -0.138853506434696072E+00    0.915449864072434139E+01    0.124128155786319923E+02   -0.119407170310884794E+04
    0.109886431079053493E+01   -0.134691794572539436E+00    0.919512084363369020E+01    0.124936411345445908E+02   -0.119405532998117837E+04
    0.109886431079053493E+01   -0.134691794572539436E+00    0.919512084363369020E+01    0.124936411345445908E+02   -0.119405532998117837E+04
    0.109837725110378548E+01   -0.984583687844882149E-01    0.121128713209149481E+02    0.129927403967711204E+02   -0.119404824778800389E+04
    0.109907346743713097E+01   -0.166680793394546001E+00    0.713510213220399869E+01    0.133439973980495665E+02   -0.119404289239463878E+04
    0.109915645120780381E+01    0.309488062789569085E+00   -0.376554345451200501E+01    0.133182734935694658E+02   -0.119403680676805379E+04
    0.109996995032866751E+01    0.363235535706708745E+00   -0.352263964522253747E+01    0.129088940485669834E+02   -0.119403157110141865E+04
    0.109996995032866751E+01    0.363235535706708745E+00   -0.352263964522253747E+01    0.129088940485669834E+02   -0.119403157110141865E+04
    0.109901132952018155E+01    0.485970393810520207E+00   -0.237586777737886745E+01    0.126768307316425695E+02   -0.119403080180237885E+04
    0.109929092716976395E+01    0.329193290570797075E+02   -0.352317259988561560E-01    0.124910764274544466E+02   -0.119402910847544877E+04
    0.109897608075743225E+01   -0.218967459482539262E+00    0.530402031079008829E+01    0.132006225926836169E+02   -0.119402755634237928E+04
    0.109902340248286956E+01    0.282550438982212881E+00   -0.417107422471675804E+01    0.124388245815144529E+02   -0.119401321010001652E+04
    0.109988869723875515E+01    0.230771075336062381E+02   -0.506571592519167169E-01    0.122802374536634424E+02   -0.119400707837440405E+04
    0.109904605443283021E+01   -0.110395141708852229E+00    0.113341820731734302E+02    0.127726428198487962E+02   -0.119399614801588655E+04
    0.109892906301576287E+01    0.267483532204290384E+02   -0.465992577122502638E-01    0.127062861448385060E+02   -0.119399274572522449E+04
    0.109971847226726704E+01   -0.692305316792660719E-01    0.163700196555760371E+02    0.128079300597218442E+02   -0.119399232792730982E+04
    0.109893780022977805E+01    0.311784708201745602E+02   -0.371640642198824978E-01    0.130930366834703698E+02   -0.119397859116158065E+04
    0.109841778298270709E+01    0.369491162715746668E+00   -0.322622580345154475E+01    0.129131419898341253E+02   -0.119397550661986043E+04
    0.109865567038297551E+01   -0.887429654772313725E-01    0.134425350154069427E+02    0.125393922723889784E+02   -0.119397280039205475E+04
    0.109973580195927556E+01    0.397232785287439327E+00   -0.319729358966124000E+01    0.129140636677186134E+02   -0.119396784186808077E+04
    0.109859801428813775E+01    0.676251331650186138E+00   -0.181267231432550968E+01    0.127890842070299051E+02   -0.119396694639170641E+04
    0.109840470447739902E+01   -0.183609029448851047E+00    0.653094957382353414E+01    0.128393954080982535E+02   -0.119396318214341386E+04
    0.109989663756070954E+01   -0.145114439980322807E+00    0.785879816647656249E+01    0.125884975024904460E+02   -0.119394217046062204E+04
    0.109945847249963835E+01    0.271831637188106434E+00   -0.419799117458611271E+01    0.128209219427543424E+02   -0.119394004969918728E+04
    0.109935775887971143E+01    0.691981363424157614E+00   -0.168363202185109229E+01    0.133359950544526757E+02   -0.119393715663919647E+04
    0.109870616888666861E+01    0.693915350297990230E+00   -0.168455907352442713E+01    0.127701741924133678E+02   -0.119393671758734217E+04
    0.109941698418748945E+01   -0.137057338517005078E+00    0.835656103880773493E+01    0.127334241594085569E+02   -0.119392758863724225E+04
    0.109976678305337083E+01    0.910290152008455422E+00   -0.125648354152321406E+01    0.133032158909685450E+02   -0.119392097473579202E+04
    0.109882823070180891E+01    0.357851386912954936E+02   -0.324983587578975275E-01    0.128822553539855473E+02   -0.119390984163488474E+04
    0.109898733025483808E+01   -0.719886895155532613E-01    0.172218711050254463E+02    0.129006167286874494E+02   -0.119390982534983868E+04
    0.109895699795948421E+01   -0.362774757821653360E+00    0.326293064969565094E+01    0.124932256128206589E+02   -0.119390665382248380E+04
    0.109895699795948421E+01   -0.362774757821653360E+00    0.326293064969565094E+01    0.124932256128206589E+02   -0.119390665382248380E+04
    0.109910103004381088E+01    0.245943363033059867E+02   -0.471665928476010521E-01    0.131381687869677108E+02   -0.119389705828707838E+04
    0.109909796986377195E+01   -0.226091718820930154E+00    0.514760814331940963E+01    0.131772793070429550E+02   -0.119389542811507681E+04
    0.109922229131673754E+01    0.313037192012004084E+00   -0.395304449953132675E+01    0.124189891756053221E+02   -0.119388634712653129E+04
    0.109938405336323042E+01    0.417537394665086268E+02   -0.297645460165307796E-01    0.123844821393626976E+02   -0.119388509452202766E+04
    0.109909047648118285E+01    0.402740820863982663E+00   -0.305253361515674015E+01    0.130887191454211127E+02   -0.119388462299213825E+04
    0.109908736875628321E+01    0.613513376994196946E+00   -0.196591341487698390E+01    0.132296549667614833E+02   -0.119388002972510594E+04
    0.109938030274583221E+01   -0.268103385271830419E+00    0.452777098961692737E+01    0.133107113657610991E+02   -0.119387987536084279E+04
    0.109940738995313403E+01   -0.267711212852677072E+00    0.429428851120282928E+01    0.131605023995336872E+02   -0.119387818191441443E+04
    0.109951848977583122E+01   -0.100993667563239242E+00    0.113290056878801764E+02    0.131195411038826215E+02   -0.119387626239959263E+04
    0.109899219058802333E+01    0.270022355786331971E+02   -0.459298292381955520E-01    0.126222644785928999E+02   -0.119387488956257152E+04
    0.109971972781423477E+01   -0.264533720803886041E+00    0.441848611888529419E+01    0.134440285588933612E+02   -0.119386788223137023E+04
    0.109916998892807394E+01   -0.311489025450735646E+00    0.380013332009811577E+01    0.132790280721915295E+02   -0.119386182498391645E+04
    0.109909380157995540E+01   -0.125035898067891615E+00    0.946387731394408149E+01    0.132449819039460763E+02   -0.119385995369874763E+04
    0.109947912462552178E+01    0.346390944147946023E+00   -0.354826545431105878E+01    0.123065834067695423E+02   -0.119385487230908711E+04
    0.109934638726871414E+01    0.325909811625103529E+02   -0.376096158465113461E-01    0.123451813122228558E+02   -0.119384454990131781E+04
    0.109926724763637251E+01   -0.773037866892085646E-01    0.160952303041543985E+02    0.129773835332769405E+02   -0.119384117974439482E+04
    0.109964460997407421E+01   -0.892098878420615193E-01    0.141232669102414903E+02    0.129552366191453121E+02   -0.119383873974419930E+04
    0.109918013028739581E+01    0.318304936850701949E+02   -0.371974117164199924E-01    0.132594450454925230E+02   -0.119382204897481142E+04
    0.109950411808287951E+01    0.506359356940313532E+00   -0.234863822834833469E+01    0.133831815655690285E+02   -0.119381993936050799E+04
    0.109929220599108146E+01   -0.234832034471502915E+00    0.493819369190408963E+01    0.131724298893256275E+02   -0.119381449379313563E+04
    0.109907105045660880E+01    0.518539022106459413E+00   -0.237653286764194682E+01    0.125247419066179138E+02   -0.119380421952154848E+04
    0.109990320908404238E+01    0.930786059335978244E+00   -0.122093761664762823E+01    0.130760685022834764E+02   -0.119378719166161750E+04
    0.109958330890187361E+01    0.392444773457246114E+02   -0.317305993426515442E-01    0.123744215150417070E+02   -0.119378718103637630E+04
    0.109906696757166111E+01   -0.283021313348091219E+00    0.431076678421031723E+01    0.130811586943455644E+02   -0.119378161806129947E+04
    0.109991233959029500E+01   -0.840480063796871235E-01    0.150493163899025504E+02    0.129858530886078576E+02   -0.119377761995099058E+04
    0.109931101679414645E+01    0.443588623849191954E+00   -0.261471251494904955E+01    0.126635281750280768E+02   -0.119377118359678502E+04
    0.109880665785227838E+01   -0.967466615658887363E-01    0.121831339832781005E+02    0.128571304793577639E+02   -0.119376155033901978E+04
    0.109957354753678582E+01    0.405936992016165732E+00   -0.283345743972654640E+01    0.127052116899641803E+02   -0.119375615577120698E+04
    0.109929373796792129E+01   -0.692427399942934230E-01    0.180064683443829736E+02    0.126021310502326358E+02   -0.119375507713968750E+04
    0.109927230276560883E+01   -0.659206791234607792E-01    0.189271862146231804E+02    0.127085633182566085E+02   -0.119375173680441139E+04
    0.109969553500143280E+01    0.323104449030661378E+00   -0.358697509951286353E+01    0.133119894968983843E+02   -0.119374496365733467E+04
    0.109930191026223034E+01    0.535892536879583048E+00   -0.217334324606400919E+01    0.131633888907898040E+02   -0.119373951270840644E+04
    0.109955813211050413E+01   -0.941815809496491241E-01    0.131923413712755391E+02    0.123951055702769697E+02   -0.119373682254720757E+04
    0.109940711294440030E+01   -0.118226775195684475E+00    0.103382418122716189E+02    0.132000881405427535E+02   -0.119373452049315006E+04
    0.109997644246793680E+01   -0.609396586105157567E-01    0.186430483904049353E+02    0.130059740866738167E+02   -0.119372995167812041E+04
    0.109883964733361505E+01   -0.338580016718835530E+00    0.358462762354180065E+01    0.128845864539012478E+02   -0.119372232198555116E+04
    0.109941818115385104E+01   -0.722389231312154934E-01    0.164573876392890917E+02    0.124193825172432444E+02   -0.119370314345307202E+04
    0.109907392077225152E+01   -0.758551606497359643E-01    0.160166147040791422E+02    0.130565074680583049E+02   -0.119370085364038732E+04
    0.109974015413928239E+01   -0.692809032283676629E-01    0.166100197093896931E+02    0.126545150813942442E+02   -0.119369966588384364E+04
    0.109959743402527454E+01    0.290909525688320088E+02   -0.424745666424728441E-01    0.123647207394152332E+02   -0.119369596647613275E+04
    0.109993886424822351E+01    0.346078642725245444E+02   -0.366757267541970577E-01    0.125730451713489693E+02   -0.119369480315711303E+04
    0.109974364923197654E+01   -0.110550338222192401E+00    0.104250146953559959E+02    0.132286531021107692E+02   -0.119369347903071002E+04
    0.109968022596021564E+01   -0.860212982371519885E-01    0.142021273028892061E+02    0.123059373578580136E+02   -0.119368654466502676E+04
    0.109946412061234922E+01   -0.124278956671927787E+00    0.987868085800780626E+01    0.131544343307043157E+02   -0.119368056005159497E+04
    0.109933752515167882E+01    0.461711068254468948E+00   -0.251545962050659888E+01    0.130694433799240670E+02   -0.119367318853456686E+04
    0.109950656741412023E+01   -0.872186372806176280E-01    0.132300977958575317E+02    0.130592959400041337E+02   -0.119367088116682476E+04
    0.109913287933761605E+01   -0.674625803697681548E-01    0.174315217904690627E+02    0.126798520349345303E+02   -0.119364486944003215E+04
    0.109888771121840589E+01   -0.270468668507382048E+00    0.445902615108760791E+01    0.127381776992330931E+02   -0.119364452122520402E+04
    0.109984008960455881E+01    0.386448337527168988E+02   -0.297365786111836172E-01    0.126882425142323818E+02   -0.119363845728967544E+04
    0.109944259177169967E+01   -0.103048495308470933E+00    0.113476837175616900E+02    0.131948121226639543E+02   -0.119363764358097797E+04
    0.109937964087566664E+01    0.390894379056543499E+02   -0.298045889308422574E-01    0.131042400833012440E+02   -0.119362876789951792E+04
    0.109972163219054164E+01    0.425365932411589043E+00   -0.287608622093828004E+01    0.132610880879673676E+02   -0.119362528390375587E+04
    0.109936533025451366E+01    0.637665445039367285E+00   -0.181852001319403378E+01    0.129338371833302812E+02   -0.119362513049526751E+04
    0.109935024026903827E+01    0.461734084187551019E+00   -0.257194487172310327E+01    0.125004086019712428E+02   -0.119361270085344472E+04
    0.109891706896785624E+01   -0.844125251629099793E-01    0.142502307583566861E+02    0.128090824374380237E+02   -0.119361095759558316E+04
    0.109914020493983045E+01   -0.117337761080207770E+00    0.104816454427514376E+02    0.127266880013156545E+02   -0.119361048096530453E+04
    0.109959605465318555E+01    0.401115222488484413E+00   -0.296843698849586346E+01    0.133069537482491533E+02   -0.119360810254183684E+04
    0.109914769121392730E+01   -0.274270893801823235E+00    0.448434485174958297E+01    0.127612751705722900E+02   -0.119360380875573196E+04
    0.109988373900543923E+01   -0.192020747478933274E+00    0.596689360583669348E+01    0.130803309205763085E+02   -0.119359905353147246E+04
    0.109992805606422417E+01   -0.897834495300440238E-01    0.138105185227035250E+02    0.123166372425359345E+02   -0.119359718636724301E+04
    0.109897117413271772E+01    0.289362561984211730E+00   -0.413101245885323465E+01    0.129075828302024718E+02   -0.119359218176767763E+04
    0.109950344286343227E+01    0.487641881307441238E+00   -0.238140336340891468E+01    0.127073914219083495E+02   -0.119359051062430763E+04
    0.109938943010640533E+01    0.399524593970983446E+02   -0.305833649934550422E-01    0.124614465863961765E+02   -0.119358750408018955E+04
    0.109899689171808479E+01   -0.211318373992440911E+00    0.563250294489625425E+01    0.127884982207634508E+02   -0.119357616042529844E+04
    0.109985545912631544E+01   -0.933930731960677107E-01    0.123233436383776542E+02    0.127044606566171314E+02   -0.119357615979749971E+04
    0.109959910992225640E+01    0.332427377374535169E+02   -0.355949856465329617E-01    0.124553198955759843E+02   -0.119357176451705914E+04
    0.109984698166452621E+01    0.232423579209965752E+02   -0.500206039158594962E-01    0.125361066758667246E+02   -0.119357045867082979E+04
    0.109903599912782046E+01   -0.999671454361887868E-01    0.119990109072921101E+02    0.129491978178575806E+02   -0.119356736455796681E+04
    0.109923138452880420E+01    0.508830921046405926E+00   -0.241653363024893508E+01    0.126496765842774437E+02   -0.119356509499784420E+04
    0.109964533985284030E+01    0.381115856467714380E+02   -0.308733874494393490E-01    0.132772853710827690E+02   -0.119356465054069076E+04
    0.109943370868158574E+01   -0.842855944405771496E-01    0.139996732329791627E+02    0.125457421575812607E+02   -0.119356196544121622E+04
    0.109916847504089610E+01   -0.139810687015445190E+00    0.864880858468846547E+01    0.130247926175555921E+02   -0.119356184230438566E+04
    0.109985379546366691E+01   -0.107943792577593456E+00    0.108474685026070894E+02    0.133231981744645083E+02   -0.119353888625899185E+04
    0.109939231867770126E+01   -0.751909396925771745E-01    0.164262606722732158E+02    0.128888303979543153E+02   -0.119352676763492650E+04
    0.109974975987520196E+01    0.644536887631241839E+00   -0.189883768430380817E+01    0.123603169150837111E+02   -0.119352614094297473E+04
    0.109963289664476283E+01    0.562569141918399573E+00   -0.210491926367133875E+01    0.124640333447366594E+02   -0.119352559377900798E+04
    0.109931735101678374E+01    0.600633045794301879E+00   -0.205106392612406374E+01    0.128008734324579407E+02   -0.119350593670954277E+04
    0.109959613481326857E+01   -0.129455702428028729E+00    0.945623469913060966E+01    0.131312897175613266E+02   -0.119350236274719873E+04
    0.109947259607136871E+01    0.273866828034583065E+00   -0.452804855668977968E+01    0.126579198602364951E+02   -0.119350032998635220E+04
    0.109961446364851412E+01   -0.161694635192869640E+00    0.716722156052903081E+01    0.129831576752234596E+02   -0.119349198784502755E+04
    0.109958222824918250E+01   -0.612253851647102110E-01    0.190797727426308938E+02    0.131322817079779064E+02   -0.119348994285049571E+04
    0.109977599807980031E+01   -0.644419231519854918E-01    0.188747041895908652E+02    0.123643364122681128E+02   -0.119348191837395984E+04
    0.109997220904600956E+01    0.724684613161697300E+00   -0.159820225355165935E+01    0.132396938135127673E+02   -0.119347888465779374E+04
    0.109931380100599307E+01    0.395829583444722104E+02   -0.296901119626662435E-01    0.129052852404555356E+02   -0.119346530707443276E+04
    0.109995312671325784E+01   -0.851588695381551020E-01    0.135191543024397163E+02    0.127655834536166388E+02   -0.119346150097936379E+04
    0.109918448938282154E+01    0.366753646849089954E+00   -0.331191389797580049E+01    0.127955485828215476E+02   -0.119345981901723553E+04
    0.109971577959516842E+01   -0.111857936707951744E+00    0.104384095930893963E+02    0.131692230421797305E+02   -0.119344719691767682E+04
    0.109934785987413375E+01    0.420620819248483713E+00   -0.290055959573967304E+01    0.129532434397978395E+02   -0.119344272473822434E+04
    0.109959622788650746E+01   -0.122920314219281401E+00    0.100160460483584828E+02    0.130205373099763335E+02   -0.119343937304648261E+04
    0.109939294266110732E+01    0.253753103243963842E+02   -0.483197022215158256E-01    0.126240078982115946E+02   -0.119343458633320824E+04
    0.109968290064798180E+01    0.381867612251454602E+00   -0.325948957782850623E+01    0.125999442417760825E+02   -0.119343449996542040E+04
    0.109993720227351988E+01    0.345294255419296370E+00   -0.363590355877793847E+01    0.128444833447415796E+02   -0.119341570049553820E+04
    0.109990533114766631E+01   -0.122751554420637454E+00    0.100300293478609763E+02    0.131676825071786396E+02   -0.119341457069142416E+04
    0.109995410618112843E+01   -0.685281697970756554E-01    0.174233091553418156E+02    0.123758811920566618E+02   -0.119341331602731134E+04
    0.109976005747748573E+01    0.486211808971025228E+00   -0.256001204741393451E+01    0.129189592970361744E+02   -0.119341244124686341E+04
    0.109964015165917495E+01    0.317557378896242284E+02   -0.369335015963256907E-01    0.126291517870061156E+02   -0.119341160770885699E+04
    0.109970428255281849E+01    0.320589709821766817E+02   -0.381148057235582982E-01    0.124372419697596079E+02   -0.119340762888579343E+04
    0.109956041696069362E+01    0.668681212181373219E+00   -0.175389988601412039E+01    0.127104098065702473E+02   -0.119338813375370046E+04
    0.109988466917480210E+01    0.518122757759029717E+00   -0.222981589115578105E+01    0.129684930281576900E+02   -0.119337948863025508E+04
    0.109962059511291921E+01    0.904757572943702293E+00   -0.132758556144183615E+01    0.131645015572343222E+02   -0.119337515750132889E+04
    0.109965336073338449E+01   -0.626785641042184594E-01    0.190273739684847847E+02    0.131813468228571917E+02   -0.119336706931721051E+04
    0.109984566784872273E+01   -0.768825401386541429E-01    0.157291969513648091E+02    0.124004876652984954E+02   -0.119336377035543228E+04
    0.109974197626752490E+01   -0.752599253124275336E-01    0.154934050971373694E+02    0.127219064104761124E+02   -0.119335864452165424E+04
    0.109962196299806214E+01   -0.856047952840803816E-01    0.143700900141149503E+02    0.129696238031769262E+02   -0.119335542707084574E+04
    0.109954006391446035E+01    0.704710434851554268E+00   -0.167795594454680286E+01    0.130746870006588729E+02   -0.119335306709873112E+04
    0.109984128554480853E+01    0.326224374950237959E+02   -0.383079964753187951E-01    0.127520010315227399E+02   -0.119335233687370510E+04
    0.109952012447052949E+01    0.291755340424194216E+02   -0.420810360133891947E-01    0.126325951753424874E+02   -0.119335030375998303E+04
    0.109935449397141261E+01   -0.952390140280483521E-01    0.125210803979231322E+02    0.129075008809822833E+02   -0.119333668205591334E+04
    0.109996362907912593E+01   -0.112478941380794062E+00    0.105819397045792289E+02    0.132934398986903268E+02   -0.119332863765047387E+04
    0.109966621116688490E+01    0.271056590121783501E+02   -0.430791708743871737E-01    0.128706038095062034E+02   -0.119332261893386658E+04
    0.109940733806043700E+01   -0.197548967090841465E+00    0.607761205309884467E+01    0.129680915535992796E+02   -0.119332225681923774E+04
    0.109966823871931041E+01    0.451336068696811310E+00   -0.267154874804707099E+01    0.124990990597594713E+02   -0.119331902337585166E+04
    0.109969448024183913E+01    0.616729205923974177E+00   -0.198887392114711181E+01    0.125271871452025572E+02   -0.119331135002971996E+04
    0.109975186483618281E+01   -0.621816878296295172E-01    0.195423585574192877E+02    0.131362311030549641E+02   -0.119331132438550139E+04
    0.109981449143460952E+01    0.374704335202497916E+02   -0.319930027265264982E-01    0.124585533919526519E+02   -0.119331043356733812E+04
    0.109974774051267543E+01   -0.630677910593160362E-01    0.196895228386464289E+02    0.126858816619569161E+02   -0.119330879829906871E+04
    0.109938714108085178E+01    0.448501869399820841E+00   -0.266835019019724706E+01    0.128846642661783317E+02   -0.119329946572335734E+04
    0.109948902861732112E+01   -0.667526108154765652E-01    0.178536008687678596E+02    0.126691042949826649E+02   -0.119329911752868975E+04
    0.109981538132973600E+01   -0.786348952514073218E-01    0.158293497620669577E+02    0.127107995231961457E+02   -0.119329459832216162E+04
    0.109983227384896409E+01   -0.650723973478584128E-01    0.184241935245336848E+02    0.132096864457055005E+02   -0.119328713191061161E+04
    0.109996824760525724E+01   -0.797623778154683549E-01    0.153121906791061697E+02    0.124020939739246305E+02   -0.119328580161577361E+04
    0.109998509947750622E+01    0.322228126848022711E+02   -0.370384762693198866E-01    0.128384645534246893E+02   -0.119289871033928262E+04
    0.109986620611953656E+01    0.309648827582471640E+02   -0.396736084046560578E-01    0.125630657224481475E+02   -0.119316378930363567E+04
    0.109974760377497738E+01    0.342440015719606023E+02   -0.349281120456836902E-01    0.127995824283707922E+02   -0.119305183068411816E+04
    0.109990633716068098E+01    0.255332813355582182E+02   -0.469692776652177457E-01    0.127649851717453515E+02   -0.119294371130908507E+04
    0.109997857216603268E+01    0.308159392816366875E+02   -0.399618410839090998E-01    0.126312129847180792E+02   -0.119305170975619239E+04
    0.109998527444220962E+01    0.375624299268298643E+02   -0.328989273966762141E-01    0.129255172606457016E+02   -0.119311556713298569E+04
    0.109983374429735359E+01    0.349933753583382554E+02   -0.342574790232585968E-01    0.130161810586097655E+02   -0.119306050960981429E+04
    0.109989566495859181E+01    0.353861281404135823E+02   -0.335345211769970675E-01    0.130144549311638258E+02   -0.119304730847631276E+04
    0.109978058538325385E+01   -0.683187986038689132E-01    0.174329613414026809E+02    0.129969075509924785E+02   -0.119309587855568202E+04
    0.109978011660031516E+01   -0.714170618936833534E-01    0.172511848154578544E+02    0.127973777446606558E+02   -0.119316488146612869E+04
    0.109998842633002369E+01   -0.798183946518689069E-01    0.148662618598199963E+02    0.124899379880859467E+02   -0.119323249121676372E+04
    0.109998078541387678E+01   -0.101957804845686617E+00    0.113835706715350433E+02    0.129251217041259387E+02   -0.119322706447194696E+04
    0.109993766737365428E+01   -0.752634323244105730E-01    0.165283046873090953E+02    0.127043222815990617E+02   -0.119319282335535672E+04
    0.109977911975996845E+01   -0.718430905767570849E-01    0.169456528190899114E+02    0.126213791667144228E+02   -0.119311640701556757E+04
    0.109957777751206676E+01   -0.695933464779567856E-01    0.173567246808124125E+02    0.127020275604937858E+02   -0.119318471362663308E+04
    0.109949434568787718E+01   -0.739879967807723915E-01    0.161020019261163547E+02    0.129711695608232773E+02   -0.119327313232724282E+04
    0.109963064453647474E+01   -0.906658153600279348E-01    0.134531168924522291E+02    0.128513723036923686E+02   -0.119318100895942507E+04
    0.109996010128708699E+01    0.945201074693510002E+00   -0.125923031010283371E+01    0.126920506275317457E+02   -0.119298306264551934E+04
    0.109997411337755402E+01    0.296414863217319358E+00   -0.413109195003792529E+01    0.126193681689196513E+02   -0.119301366255806283E+04
    0.109996292537543239E+01    0.319370789550169398E+00   -0.387972745869590341E+01    0.127060570013286718E+02   -0.119311022859190939E+04
    0.109989054872066028E+01    0.274773036575895802E+00   -0.433499018514476031E+01    0.125582181521840894E+02   -0.119315529723403415E+04
    0.109997232075842022E+01    0.308881663266410200E+00   -0.397632512454301601E+01    0.124509425312352935E+02   -0.119322870541820771E+04
    0.109992673164229093E+01    0.269042781170094614E+00   -0.449268431419246816E+01    0.126545728295071580E+02   -0.119297389408198387E+04
    0.109986377387671785E+01    0.914557957846400704E+00   -0.131930670902797953E+01    0.127438649950629106E+02   -0.119297140268519524E+04
    0.109989821618436689E+01    0.416861967106028963E+00   -0.285027116436232575E+01    0.125712251422974557E+02   -0.119315613777997305E+04
    0.109985377665990702E+01    0.432883227789651492E+00   -0.273753809057628139E+01    0.128616426570923732E+02   -0.119303145016277131E+04
    0.109985042396435118E+01    0.394651367123125318E+00   -0.304530710571229069E+01    0.128463745890024565E+02   -0.119297116945591210E+04
    0.109994500064174838E+01    0.326763785460453704E+00   -0.373060542385687288E+01    0.128566898296994818E+02   -0.119295274134475790E+04
    0.109977953700485021E+01    0.450020720901557425E+00   -0.273357040137671703E+01    0.128099000568400534E+02   -0.119314861747053828E+04
    0.109980351378296781E+01    0.526709277931937336E+00   -0.231894456633700585E+01    0.130720255568654569E+02   -0.119323977155082662E+04
    0.109975704106848693E+01    0.433280595874808938E+00   -0.273286906962048803E+01    0.129357695360647504E+02   -0.119311450664257245E+04
    0.109974270389184858E+01    0.673062304374341558E+00   -0.182414299341734498E+01    0.129664240679647058E+02   -0.119323617592264168E+04
    0.109982218808037091E+01    0.313181247653611550E+00   -0.374435687915550997E+01    0.129532478148786812E+02   -0.119317421956049475E+04
    0.109971029794117503E+01    0.580280583566137764E+00   -0.204805308518444029E+01    0.128769232486996117E+02   -0.119310712642340127E+04
    0.109964120160013934E+01    0.256800739231416664E+00   -0.473904640990895487E+01    0.128096691217960785E+02   -0.119314867842145350E+04
    0.109968312924953771E+01    0.584358685801421807E+00   -0.206110634580302188E+01    0.128555144932362850E+02   -0.119308792548553333E+04
    0.109957413048395991E+01    0.495787936426504317E+00   -0.240279053134596943E+01    0.130066924900467455E+02   -0.119324158269889494E+04
    0.109954598188037100E+01    0.418423186660089819E+00   -0.285545582311334112E+01    0.127828816205071085E+02   -0.119319409036887168E+04
    0.109954317343626196E+01    0.285903216452385145E+00   -0.419574457308192272E+01    0.126715445277701111E+02   -0.119323163019485037E+04
